{
  "name": "123g",
  "version": 2,
  "w1": [
    [
      0.04814577056525047,
      -0.12774280086344836,
      -0.112719735750454,
      -0.10466690375261314,
      0.050805869131112076,
      0.09019395426930767,
      -0.06832415473683322,
      -0.15987945220121724
    ],
    [
      -0.11269688282990588,
      0.06395439202000405,
      0.07180080502021195,
      0.040770655052854064,
      0.16449766184983178,
      -0.07266406272096985,
      -0.14917004487361088,
      0.06126360176190145
    ],
    [
      0.3062568861174081,
      -0.0013134506907643917,
      -0.0035761666417254336,
      0.006748673276374719,
      0.05917764949778262,
      0.026775099060286457,
      -0.03446822011886791,
      0.13728352091268026
    ],
    [
      -0.009221413800871424,
      -0.03321477925645233,
      0.10257641023649662,
      -0.08149107420258743,
      0.021391452464285948,
      -0.14471227901446507,
      0.18218161122644494,
      -0.07712957677867516
    ],
    [
      -0.3265874960753388,
      -0.013025449751218268,
      -0.04278984172639044,
      -0.04487811386031902,
      -0.07217405052416177,
      -0.02887418183358459,
      -0.01976897111997526,
      -0.09882740855310052
    ],
    [
      -0.24393658428754209,
      -0.26420404068370185,
      0.014785736496721108,
      0.05255933191175974,
      0.09483142539296047,
      -0.06776764272538788,
      -0.03525085316530305,
      0.09958239968127928
    ],
    [
      0.2594821043250117,
      -0.3575688096751061,
      0.05686005498664484,
      -0.21647524358763673,
      -0.1608731719870096,
      0.14136478137302708,
      0.07477131736701534,
      0.1378897263284366
    ],
    [
      -0.1626344406417771,
      0.14083733835852472,
      -0.03974257318191076,
      0.14167640364678993,
      0.1237010857519218,
      -0.06543051915093674,
      -0.18990372947773093,
      0.020657016650306323
    ],
    [
      0.08956088527175993,
      -0.12057009583555157,
      -0.21571227278930705,
      -0.4043093015618691,
      -0.042844791429959825,
      0.21283268053596563,
      0.08047267215739437,
      0.9019494773688703
    ],
    [
      -0.018738829038588183,
      -0.07110812939688325,
      0.08981896605615379,
      0.18981658513794336,
      0.10477562095768582,
      -0.0024415417282262143,
      0.0630815842125056,
      -0.06888242827223795
    ],
    [
      0.04567690222652033,
      -0.03745166371329645,
      -0.15060305538323643,
      -0.23233038092011613,
      -0.18983601516392756,
      -0.04368906404806497,
      -0.07985946858857314,
      0.3535823643255343
    ],
    [
      -0.06718234346573522,
      0.01173222574218269,
      -0.03218267941636304,
      0.03979197532200402,
      0.15911238242322812,
      -0.06710416589610174,
      -0.027800207278189347,
      0.20109043343063415
    ],
    [
      -0.008851971360065124,
      0.18735127273294516,
      -0.00995510094604879,
      -0.2962551722762651,
      0.0030547942635696487,
      0.1635661781251723,
      0.2468214104773306,
      -0.19304227332218063
    ],
    [
      -0.338805910671556,
      0.12588755735926468,
      0.017659195327584268,
      0.05539573786112909,
      0.019178160114668642,
      0.08059060109014646,
      -0.013754757513264392,
      -0.130140798887817
    ],
    [
      0.13505157844356772,
      0.12302274258613212,
      -0.07700088954410811,
      0.16791052409216153,
      0.16342024955350865,
      -0.031121402129561777,
      0.08410172515076733,
      -0.11920484056223965
    ],
    [
      0.08867941957757848,
      0.0357870945033738,
      -0.03548414693071171,
      0.0779344525692373,
      0.13053610538816604,
      0.05935023216715374,
      0.04183118137848895,
      -0.13875257595453658
    ],
    [
      0.4021931578918732,
      -0.16398476647637278,
      -0.04660029422959497,
      -0.012098657748414343,
      -0.016200744897965472,
      -0.11879481782959508,
      0.10687287071557057,
      0.09969500844417926
    ],
    [
      0.18121629329941533,
      -0.19149596403967625,
      0.05100964120870486,
      -0.018827261565073722,
      0.017716531372551046,
      -0.08319268755444231,
      0.036829311533813046,
      -0.09166340542003096
    ],
    [
      -0.1816076018466771,
      0.3577646669776673,
      -0.05808729448273606,
      0.19821407965085266,
      0.06567243010864356,
      -0.05187228078840667,
      0.06890169289464625,
      -0.2069213278339013
    ],
    [
      -0.24616227450031725,
      -0.2712445709699177,
      0.005824468317817506,
      -0.08783134933997058,
      -0.14856648361783928,
      0.12902763834762396,
      0.004002799776136049,
      0.2550391086942617
    ],
    [
      -0.04050785055533594,
      0.14703653618227822,
      0.09826160182774843,
      -0.2196045715009449,
      -0.009527287667321825,
      0.20630501463647893,
      0.030754503195692416,
      0.9528011884346905
    ],
    [
      -0.040564663355420714,
      0.3669540856316971,
      -0.046341382208333885,
      -0.25203192667859475,
      0.11950326559483639,
      0.034538630835369524,
      -0.08317935935264825,
      0.9082510091240593
    ],
    [
      0.006513785434535742,
      -0.07388018723111144,
      0.033651558280746716,
      0.20102779249668923,
      0.008761824051426127,
      -0.15683740600535168,
      0.1562389135706211,
      0.029928533425404066
    ],
    [
      0.0949704593929353,
      -0.1751352032717924,
      0.003256884000667478,
      -0.38680334928320703,
      0.22088083391202537,
      0.3115859118984147,
      0.08829434064500279,
      1.4122483678434246
    ],
    [
      0.013831109187576726,
      -0.3184507996226228,
      0.11280173781591574,
      0.0783032968375321,
      -0.05773913651430015,
      -0.15362492235707456,
      -0.09685616640788408,
      -0.3862124514101257
    ],
    [
      0.0440090293201627,
      -0.019049811764267743,
      -0.23540162873001783,
      -0.13954770181437773,
      -0.15831038566772385,
      0.15770107751099424,
      -0.2114885588029473,
      0.6633815634832388
    ],
    [
      0.12133840068987596,
      -0.021277047218880116,
      -0.12932084829265572,
      0.07823514195393086,
      0.04474027743848291,
      0.020098452056795977,
      0.03343298854924262,
      -0.07035589486890115
    ],
    [
      -0.025869620080380157,
      -0.5408745279413336,
      2.1910376904760303E-4,
      -0.54868951435672,
      0.2055809587159424,
      0.41330242419829566,
      0.11236576582988138,
      1.3032562716781384
    ],
    [
      -0.040684333886151405,
      0.3363387601597909,
      0.06998742717519683,
      -0.04418228740322446,
      0.12115776874060812,
      -0.21858568904562134,
      -0.02897995461790772,
      0.006676944380216847
    ],
    [
      0.20171896392241992,
      0.03159002750948833,
      0.11979145647518467,
      0.004947797076812966,
      0.03801268974104876,
      0.04466562325147016,
      0.03761949060521172,
      0.01604305279803651
    ],
    [
      0.06409214473576734,
      -0.11363037070456365,
      -0.16016207604950672,
      -0.2574485389328017,
      0.16010052241615175,
      0.3600859561568037,
      -0.05092494200960609,
      0.603797737065356
    ],
    [
      0.060089190503333195,
      -0.6818651893597267,
      -0.030425515835796405,
      -0.061318205325771556,
      -0.1441878491389993,
      0.13000900693733897,
      0.026891018293050715,
      0.1911938087773434
    ],
    [
      -0.006602772278275576,
      0.361439619210462,
      0.010638067168043544,
      -0.03997259352306613,
      0.014237472409211594,
      0.11767672615984208,
      -0.05248867138145425,
      0.08643433459930774
    ],
    [
      -0.0185129091607416,
      0.21770716027964834,
      -0.029583482116766903,
      0.05657556361769705,
      -0.022224945511511662,
      -0.07715150210657301,
      0.0679976803372717,
      -0.08813532655634243
    ],
    [
      0.003707218971866028,
      0.2959939459174153,
      -0.0776249213243983,
      -0.07003179866938909,
      -0.04116882274080716,
      -0.01329686848961203,
      0.2175946275720736,
      -0.05507919080730977
    ],
    [
      0.4041648279240473,
      0.19761315416104006,
      0.10968722603530162,
      0.1795856415648416,
      0.21036396751515518,
      -0.01804710314935985,
      -0.041103282568597396,
      -0.23199010300430267
    ],
    [
      0.22100478457812667,
      0.32194960652123916,
      0.030181548123057227,
      0.08050425411994541,
      0.12572794879376994,
      0.0058891853583318485,
      -0.07993401151908382,
      -0.2895169716302247
    ],
    [
      0.238586633059706,
      0.26343483602088974,
      -0.023383785038319563,
      -0.07308493093246293,
      -0.09039497041080817,
      0.058109940523548925,
      -0.018090054354201846,
      -0.0900814146393486
    ],
    [
      -0.136158894609655,
      0.21030604885804025,
      0.12255903448242023,
      0.045339238240490846,
      -0.13418520886784036,
      0.030152535788401897,
      0.1133923924861222,
      -0.3507882879461885
    ],
    [
      -0.04175312558423132,
      -0.009450180348065922,
      0.004503298226215892,
      -0.17985974306346625,
      -0.013462238869322126,
      0.09577817893529052,
      -0.25429518367089027,
      0.8075187318659232
    ],
    [
      0.10965064696614175,
      0.31570169563419437,
      -0.07308708584638038,
      -0.06748776224158957,
      0.18538945621464012,
      0.09832452950254897,
      0.026665625740600572,
      -0.45146134879845484
    ],
    [
      0.007887327109231283,
      -0.676888981371601,
      -0.033345140258223785,
      0.15157628352060715,
      -0.029962921295129463,
      -0.10494473130699494,
      0.01730207679191886,
      -0.054818146058560384
    ],
    [
      -0.010516882351554194,
      0.2986907403114993,
      -0.03927046920417138,
      0.05404147051170947,
      0.11047363883310903,
      0.14700574635100644,
      0.183973048863823,
      0.33813252980130076
    ],
    [
      -0.1915383924082941,
      0.1497525636603996,
      0.02543110207405025,
      -0.0427610400336431,
      -0.02777340586850869,
      0.04246928613218135,
      -0.11956601411205435,
      0.0769609624699542
    ],
    [
      0.11146028753550884,
      -0.15349335313956194,
      -0.30968516526154805,
      -0.43926139484936677,
      -0.017684043819399604,
      0.30631441061629827,
      -0.11671231184928248,
      1.620572453604931
    ],
    [
      0.12075717990004449,
      -0.02706311669636399,
      0.06464077517319146,
      0.19760769180517257,
      0.10050999760530925,
      0.09443615957485359,
      0.13790275317646014,
      -0.15430944495713916
    ],
    [
      -0.2621031339294129,
      -0.12109823579789127,
      -0.0694631562554358,
      -0.08449490993117467,
      -0.1349672196620114,
      -0.06441246089876979,
      0.10741593922879526,
      0.1269472189317272
    ],
    [
      -0.005098701862992027,
      0.31282891056152917,
      0.050375119167025015,
      -0.04364028632262357,
      -0.0350031797638481,
      0.15426553994320857,
      -0.11974627697693893,
      -0.1471194403070103
    ]
  ],
  "b1": [
    -0.02133359250901239,
    -0.05223850844595719,
    0.004771397033915171,
    0.055381156263465466,
    -0.05782937567899565,
    -0.029693860149232698,
    0.08632870614239974,
    -0.0588685090782838,
    0.42165648181040577,
    -0.031048130820888645,
    0.12390095282861853,
    -0.02730684126047899,
    0.17634272141473104,
    0.024232471123700295,
    -0.03991978096740923,
    -0.03987004515843648,
    0.02206766661754827,
    -0.03529816198111035,
    -0.016724309856605044,
    0.014472715369210841,
    0.3383409817969903,
    0.1639347756388495,
    -0.0314355950795552,
    0.4339324318800886,
    -0.10694131021156693,
    0.18565001757467825,
    3.1870143826361145E-4,
    0.5401313613498008,
    -0.0973826169487822,
    -0.0037622205406343365,
    0.29862831079177404,
    0.13007822272359443,
    0.06934684325048227,
    -0.01942814031642741,
    0.06351274645675957,
    -0.04337221041842312,
    -0.028702672425522394,
    0.0268037698651611,
    -0.008865080101672636,
    0.18660462951605675,
    0.02054578560621054,
    -0.08755241312628698,
    -0.011867121321433286,
    -0.012668302972479473,
    0.5585897777028817,
    -0.06845020689421395,
    0.07067181500260498,
    0.023293643275826253
  ],
  "w2": [
    [
      0.029968205007972613,
      -0.11034114873544293,
      0.5429794680881517,
      -0.1129608436969762,
      -0.6383263712138973,
      -0.48563212789295385,
      0.5166326619168697,
      -0.33123507043979583,
      0.08483121186705977,
      -0.07223683600430016,
      -0.10662487839819512,
      -0.015156784580376951,
      -0.1568409985150552,
      -0.6455937806746357,
      0.12224227208699377,
      -0.05652034474185668,
      0.6057883267535934,
      0.19848423757945463,
      -0.38234196433898004,
      -0.3532824705008634,
      -0.05010120812409015,
      0.03730333351774819,
      -0.06582351211745223,
      -0.07916128043924173,
      -0.06513543377157846,
      0.13115605333866764,
      0.10945205869687448,
      -0.01533174143480479,
      -0.01074502679907035,
      0.3141253961689326,
      -0.10978045778730935,
      -6.763857022749275E-4,
      0.032579296772130846,
      0.016220483275430644,
      0.07888026545602302,
      0.44737935044052735,
      0.1838522837650486,
      0.4463240992214242,
      -0.04560308546731138,
      -0.08585051873543016,
      0.013041580700141038,
      -0.04412335097999169,
      -0.008115546711139003,
      -0.3456096396263731,
      0.08686565768783024,
      -0.07209394818168266,
      -0.5725791429423096,
      0.033172923318133825
    ],
    [
      -0.10243789473751536,
      0.0874195996446621,
      0.058254366049408826,
      -0.019540694006876504,
      -0.05794762165179285,
      -0.20352261295958238,
      -0.24907919538044251,
      0.12879736839998182,
      0.04783000101030289,
      -0.03587350335207478,
      0.13130726520465413,
      -0.06137409626331454,
      0.2663867555744326,
      0.06438547011115577,
      0.07101876753034939,
      0.05008701159912905,
      -0.10598662538666698,
      -0.08973371247177254,
      0.23578770697729046,
      -0.2511993497563958,
      0.45716928090238873,
      0.15201388804742727,
      0.016654796724919256,
      -0.1004246910294565,
      -0.29173989783734416,
      0.024566051732975536,
      -0.04165461238944792,
      -0.29162185066235913,
      0.22484449816925814,
      0.037903743305930174,
      -0.07152495515278079,
      -0.1907296990579817,
      0.29736215637476854,
      0.1887016232806309,
      0.2019045696891052,
      0.09705152025733405,
      0.1514336952901702,
      0.19993285261107055,
      -0.004407783003564111,
      -0.02163896401044088,
      0.02815250019736743,
      -0.3251709980353453,
      0.1726296791270304,
      0.1868295168611499,
      0.0365026879817524,
      0.015786686291453886,
      -0.1173680042175019,
      0.16593500410694392
    ],
    [
      0.09852365692415505,
      -0.1262604262110069,
      0.16258275572916492,
      0.028668829781093662,
      0.14277806661110243,
      -0.0949652358197696,
      -0.1610360902949423,
      -0.0916677049043926,
      -0.5686389128674935,
      -0.1772155740982023,
      -0.23299163700394587,
      -0.15640148346308627,
      0.13983230409559227,
      0.1894577461466789,
      0.1410445875013983,
      0.13592205234324609,
      0.3137782193377955,
      0.16449844191589144,
      0.22388434237272026,
      -0.15027553885202732,
      -0.3011002756126048,
      -0.41426193748649764,
      0.12060435610607799,
      -0.7210869671923338,
      -0.2748948000072599,
      -0.3994322836650784,
      0.11216505483622206,
      -0.5562954669286038,
      -0.09456701602444025,
      0.15122655158775786,
      -0.41882451223863043,
      -0.3618649560526911,
      -0.0347546504287069,
      0.012776403088383917,
      0.08447679683421297,
      0.3854042122315629,
      0.2879321040835449,
      0.1414985402630233,
      0.28266276116108885,
      -0.4388595679947787,
      0.3713233887093377,
      -0.2941709898449866,
      -0.13599052938235437,
      0.09266619597548069,
      -0.9365578959324096,
      0.16185090292584947,
      0.029041474711869172,
      0.11020731990217732
    ]
  ],
  "b2": [
    0.0071733217095232985,
    -0.05155943401976895,
    -0.9398207448413823
  ]
}