{
  "name": "spok",
  "w1": [
    [
      0.11264628404569729,
      0.13841476716534665,
      -0.07662478601533511,
      -0.07522223597493616,
      0.03282166300845999,
      0.06166539873433621,
      -0.09470310840678153
    ],
    [
      -0.10778088240822363,
      0.08296855036005336,
      0.12965430131646427,
      0.07947300889463584,
      -0.03219266742655584,
      0.127034436076628,
      -0.061389682714642284
    ],
    [
      -0.06974512587063719,
      0.06541925102546561,
      -0.05066366028102168,
      0.04002529390260572,
      -0.13358844353174038,
      0.025352721297175605,
      0.16871094325300423
    ],
    [
      -0.006108716795677779,
      0.06598155287908561,
      0.19419791855394483,
      -0.24179044724220192,
      -0.08302207200330215,
      0.27004121744416465,
      0.0974090125993226
    ],
    [
      0.19737880444551195,
      -0.44324116020512366,
      0.06941179616608466,
      -0.06990115498760073,
      -0.07176293868889008,
      -0.14966249899085893,
      -0.22450357551961275
    ],
    [
      -0.7096071719046281,
      -0.14476023075470723,
      0.05430421623936219,
      0.01434291416751218,
      -0.008957079622513959,
      0.014919963542471302,
      -0.09502217901580386
    ],
    [
      -0.04068531333072752,
      -0.26839690068946553,
      0.06111999471487286,
      -0.28600452193555237,
      -0.10693893353480542,
      0.3109075761412257,
      0.23184077700317707
    ],
    [
      -0.12750545080383763,
      0.2743075479939022,
      -0.13366009595046738,
      -0.0075477070302753906,
      0.03254374358262999,
      0.1536558153847224,
      -0.07802728406788875
    ],
    [
      0.1340299118851875,
      0.07359307099582214,
      -0.04834039047284681,
      0.029266951382631103,
      0.19265473889272677,
      -0.04710559472949149,
      -0.17203804706760786
    ],
    [
      0.10536178831598442,
      0.15599157487206114,
      -0.041950233438000535,
      0.016518690042478582,
      -0.057272027148185245,
      -0.053592944542377355,
      0.006892506132521577
    ],
    [
      0.4104609491675148,
      -0.27686190038875075,
      0.05383739494169818,
      0.002902987690062604,
      0.009912081986643978,
      0.005660865029051554,
      0.04643764457809273
    ],
    [
      0.016265746638193877,
      0.12270413036466093,
      -0.061007533107883934,
      0.11776469448064063,
      -0.03001032709042617,
      -0.08789111386066155,
      -0.19804925043477148
    ],
    [
      -0.27907479437549165,
      -0.38816634845100756,
      -0.07977275411558839,
      0.027588339477058563,
      0.03358045703157385,
      -0.011767022357490666,
      0.046918475659876564
    ],
    [
      0.10748764010482716,
      -0.18149265447288718,
      -0.02714868964656947,
      0.041327554534518654,
      0.07490032476572482,
      0.026067258264670313,
      0.140474706091688
    ],
    [
      0.020574273160294268,
      -0.01363625437097475,
      0.01986081297631781,
      0.10006234685873817,
      0.1484337358573237,
      -0.14564839372747937,
      -0.19595935713820806
    ],
    [
      0.1928669919484524,
      -0.3898556989038005,
      0.017089928131791967,
      0.20384065268403279,
      0.08175467311949212,
      -0.04007188888441439,
      -0.17240852311302374
    ],
    [
      -0.21015128842377026,
      0.09280743135125209,
      -0.042596828906215925,
      0.10897375394850016,
      0.13858989093903415,
      -0.02042984066597146,
      0.1463731291340326
    ],
    [
      -0.1337675723301461,
      0.301503970437698,
      -0.02138963180064816,
      -0.052754770673780836,
      0.028560014590414323,
      0.0456096709292173,
      0.16788051187649225
    ],
    [
      -0.09106493707011436,
      -0.04824574021565975,
      0.21667667890892556,
      0.06724974359186138,
      -0.11064627068540611,
      0.02000547715646648,
      0.06612994926552135
    ],
    [
      -0.4801523911116044,
      0.2958667862849971,
      -0.05360765694262106,
      0.0492066522777473,
      -0.014242461227535594,
      -0.01590496956449144,
      -0.02582599225397529
    ],
    [
      0.3784973417554729,
      -0.18922981180545978,
      0.04937279063558727,
      -0.03579892279463161,
      -0.055929192518810185,
      0.15311375567256105,
      -0.07300151593215023
    ],
    [
      0.6072111913777047,
      0.09108835279435089,
      -0.042212421698262864,
      -0.0029641611695676493,
      -0.0064116035533467175,
      -0.053987740846336583,
      0.0601324793363565
    ],
    [
      -0.15034121020217603,
      0.12767718628180294,
      -0.12176360044816265,
      0.1443699730576038,
      0.048136011968335154,
      0.1550108219001591,
      0.08615570842212823
    ],
    [
      0.2293092195342114,
      0.06424521091442083,
      -0.02975931438701797,
      0.10671916572769734,
      0.04998743768526986,
      0.14133376648651355,
      0.0969093831602372
    ],
    [
      -0.15084528899491445,
      0.3085259078547229,
      -0.0033471665601727883,
      -0.19710217367948804,
      -0.0568093981915086,
      -0.029142523239174954,
      0.13621240481298247
    ],
    [
      0.23254483457451253,
      0.35714967421920024,
      -0.055460910721511276,
      0.060125272736094616,
      0.03261768175804732,
      0.04110336166988017,
      -0.09214611743340008
    ],
    [
      0.45994331520455395,
      0.1302214803287069,
      -0.024617351272469272,
      -0.06549679484192639,
      0.014299541852988287,
      -0.06483701283669374,
      0.13029249612447935
    ],
    [
      0.3357936993518603,
      0.4773501808947345,
      0.08238126787286712,
      0.010622712825311319,
      -0.05383131265745751,
      0.07211863117838926,
      -0.0737330065842627
    ],
    [
      -0.19910953828234704,
      0.05707269223998196,
      -0.05664532962255326,
      -0.19476715941216804,
      -0.007806054120140416,
      -0.17570816785992374,
      -0.15892483725099976
    ],
    [
      -0.2946381778103983,
      -0.4433108808954086,
      0.040573312432381534,
      -0.06295292214266922,
      -9.029314131216529E-4,
      -0.03840780021234791,
      0.08078411162679087
    ],
    [
      -0.11198478080264615,
      0.24962293693343976,
      0.03288901640782244,
      -0.021947448649314836,
      0.007074730741596816,
      -0.0628159246054937,
      0.08547382891390685
    ],
    [
      -0.06854541994756762,
      0.017640079532652102,
      -0.09803319272972576,
      0.09288950982278146,
      0.07124874567393047,
      0.13792539534226228,
      -0.0196910327175676
    ]
  ],
  "b1": [
    -0.013961020222057722,
    0.01232661517845057,
    0.009434937345973086,
    0.16331293509586264,
    -0.047348222200488434,
    -0.015250786684559174,
    0.2140845809321556,
    0.026192234787217203,
    0.016674191271143543,
    0.011387956323057181,
    -0.01226619939301638,
    -0.010657691642594346,
    3.3052779515636355E-4,
    -0.0039665743161989234,
    -0.011438006330595793,
    -0.06373507447131631,
    0.003915765730391866,
    -0.015109201797130075,
    0.008366101886023108,
    0.04036004748403506,
    -0.02402986866490643,
    0.061321300783609374,
    0.019639273815725784,
    -0.02293263990251992,
    0.06487469736912277,
    0.014877292076710135,
    -0.04187175759835859,
    -0.018931175687646178,
    -0.039203475164663056,
    0.009625353846417096,
    0.028198281521075824,
    0.014390301195977393
  ],
  "w2": [
    [
      0.09936324303905518,
      -0.03655813891285402,
      -0.06851128103028054,
      -0.0535686028217601,
      0.1605799759157321,
      -0.743950109689346,
      -0.0143872514177391,
      -0.07619100382709297,
      0.047326614462099445,
      0.0010240915319074454,
      0.3662923533599057,
      -0.0037510673194443072,
      -0.25740239845029433,
      0.0704681578424517,
      0.035218859441569446,
      0.05956568054794096,
      -0.18893597820995123,
      -0.1679220942237931,
      -0.0806960701027212,
      -0.44133728317815774,
      0.34760579988663703,
      0.5748730937138508,
      -0.0954865811180128,
      0.16459398408989248,
      -0.014082969905372876,
      0.10118050267172583,
      0.3495874889458153,
      0.23272239374450834,
      -0.19269599443806823,
      -0.14177629074800777,
      -0.08733081083051589,
      0.10036043564287597
    ],
    [
      0.039374338318414144,
      0.10580264870534127,
      0.0759543517568201,
      0.42496390461003397,
      -0.35546754083490595,
      -0.12425459241228097,
      -0.5264490380359714,
      0.189376893185623,
      0.04629443627821686,
      0.17599258855604688,
      -0.2798798505386983,
      0.16630469761634484,
      -0.3899796855574079,
      -0.160344679721967,
      0.03927727321300002,
      -0.4023661401250228,
      0.09915886430180634,
      0.3131547493943596,
      -0.038033259208203204,
      0.27620037473549636,
      -0.19306200272518562,
      0.027015392309774768,
      0.18357469864834608,
      0.02089800480878741,
      0.3958610432559894,
      0.30523293386939837,
      0.1495124690263702,
      0.4293157078849125,
      0.056703963887691146,
      -0.4557646664081733,
      0.24299087893306476,
      -0.12619763592718256
    ]
  ],
  "b2": [
    0.022933240966275317,
    -0.002221749167399001
  ]
}