{
  "name": "test1",
  "version": 2,
  "w1": [
    [
      0.15457614904233985,
      0.32852890570549725,
      -0.07992831179915842,
      -0.2123914584614838,
      -0.010772233756363695,
      0.08773595335227298,
      -0.07094220118879854,
      -0.27624993512773377
    ],
    [
      -0.22253802874599374,
      -0.17938651903727604,
      0.04624904104012642,
      0.028639359306635727,
      0.06616881206638614,
      -0.018329374089620938,
      -0.06406930851878007,
      -0.008283714846260158
    ],
    [
      0.1850712559406971,
      0.30556923366670935,
      -0.15130799373363982,
      0.03861448079415759,
      0.05326895565006918,
      0.12200862804750397,
      0.06282971659206213,
      0.2190063126523857
    ],
    [
      -0.014632947864145419,
      0.01346362920650088,
      0.09306745783241406,
      -0.039045119964371044,
      -0.001383888160803394,
      -0.17707183855479366,
      0.1615669415540273,
      -0.09424686722938118
    ],
    [
      -0.3811402283590807,
      0.032018961360632,
      -0.08342685147404946,
      0.026944904409008773,
      0.055556525690541356,
      -0.02380860887784784,
      -0.03997444183861588,
      0.04227916155321738
    ],
    [
      -0.2977994272519115,
      -0.26254781876177546,
      0.058688650325258,
      0.04020099755707687,
      0.01933623897696835,
      -0.03163338572706722,
      -0.011953045205058322,
      -0.009955148987243234
    ],
    [
      0.41145784747584035,
      -0.44309994573537426,
      0.0010845189695632472,
      -0.1405336864166885,
      -0.038826552040383926,
      0.03631306723197742,
      0.01647648658309236,
      0.1408480266191595
    ],
    [
      -0.31297146084281147,
      0.10041973468354488,
      0.013224872856581962,
      0.032036742084300386,
      0.127151178974236,
      -0.07438493654855578,
      -0.21359362008027807,
      -0.12792298059300725
    ],
    [
      0.2542592775560007,
      -0.08763176050611599,
      -0.01593181363690807,
      -0.026804152862368077,
      -0.10211198085724468,
      0.04520075668097555,
      0.14481371311078492,
      0.1254705959070007
    ],
    [
      -0.0028654518788170614,
      0.14278838098533497,
      0.018645467089324415,
      0.5608466538800888,
      0.06589067930780314,
      0.08553293512259591,
      0.07358398073038011,
      0.12640473497521532
    ],
    [
      -0.02192620623160813,
      0.054715283769696726,
      -0.02835069769527231,
      -0.13332309345915325,
      -0.14686203556149938,
      -0.043815340613088734,
      -0.006033140991692563,
      0.15230789537689476
    ],
    [
      -0.012424175458265652,
      0.10495700364603504,
      -0.045803520507060956,
      0.212152577649799,
      0.17197933115768563,
      0.04773089186476398,
      -0.003126579791350927,
      0.2145240755092508
    ],
    [
      -0.08357333398079757,
      0.4287895208329658,
      0.06235170009202285,
      -0.15504109267127672,
      0.04152666528689415,
      0.14031202241529822,
      0.1418990638408343,
      0.03971232700980961
    ],
    [
      -0.2812199218767045,
      0.274183863112605,
      0.012743143808530574,
      0.08157210722755977,
      0.054698328208190206,
      0.019561379991503338,
      -0.06011312497408332,
      -0.1957043409560851
    ],
    [
      -0.003487659772438151,
      -0.0013710290227079498,
      -0.04171643602555696,
      0.1650666459916819,
      0.10617286281638559,
      -0.0956938559446141,
      0.08671303570419171,
      -0.0842903012351527
    ],
    [
      -0.08868250137508679,
      0.05077377025453765,
      -0.014591868266518005,
      0.022300833566824527,
      0.06421580620569668,
      0.06489508408739836,
      0.030917020271186455,
      -0.022914005828298178
    ],
    [
      0.1794784479346378,
      -0.006452067391089472,
      0.09800262968822945,
      0.03113873826673537,
      0.06626082086356179,
      -0.04986817776009963,
      -0.050247336605925744,
      -0.11093873632869537
    ],
    [
      0.2479087543889129,
      -0.16157550219200403,
      -0.03763196727832972,
      0.1180309144723637,
      0.014593538397720892,
      -0.09840819060241165,
      -0.0343491148142955,
      -0.04227684723981728
    ],
    [
      -0.3813396593380321,
      0.43547821175844326,
      -0.005907474779728013,
      0.1310902088254108,
      0.020569590905107363,
      -0.04676152560113447,
      0.0335815076439383,
      -0.12197712518211853
    ],
    [
      -0.39780816071242947,
      0.02214265840609921,
      -0.16955268669211387,
      -0.12020945191290883,
      -0.20301456688810204,
      0.08746305043316105,
      0.0735788884997823,
      0.4933903871431261
    ],
    [
      -0.054669734215216606,
      0.34022400399101405,
      0.029129612898332435,
      -0.023495713917313886,
      -0.08032384749324775,
      0.09343398846641819,
      0.10324838891773369,
      0.6763333915756646
    ],
    [
      0.020837023884217282,
      0.5301298049370787,
      -0.04026343091897193,
      0.09464591903939523,
      -0.060166165361667204,
      -0.13704432849137618,
      -0.15533236071980117,
      0.08627949108903965
    ],
    [
      -0.0589048043467856,
      -0.4329308326596758,
      0.004156299868233549,
      0.22450171009354533,
      0.02037327918313302,
      -0.09351606168120753,
      0.10813490697860101,
      0.03986450803637868
    ],
    [
      -0.07288934308297755,
      -0.28485956129923606,
      0.26557747868542775,
      -0.3090881877442102,
      0.3018316414135512,
      -0.41671143109214104,
      0.5381325712029505,
      1.2601236112191612
    ],
    [
      -0.21401866879701076,
      -0.348408120127327,
      0.17672849448579483,
      -0.03925873859594001,
      -0.05647249851318529,
      -0.14119415223483528,
      -0.04741735074135505,
      -0.24608922374812248
    ],
    [
      0.1287346575664887,
      -0.19183529289034862,
      -0.02957594499615815,
      0.01688703657214592,
      -0.014411892415075003,
      0.009235768018041272,
      -0.125810172897898,
      0.24633026236586816
    ],
    [
      -0.009478107474695595,
      0.06802659114673859,
      -0.08354814760624783,
      0.1063627714122142,
      0.07959940875806679,
      -0.003551071116039111,
      0.032273965430697,
      -0.050349871773604324
    ],
    [
      -0.02290782261467503,
      -0.5897198251711301,
      0.04112754745134196,
      -0.13446027869143756,
      0.03458217743756032,
      0.13469334715013617,
      0.14723853914690482,
      -0.0646222187992354
    ],
    [
      0.001730243298230176,
      0.24885373101746455,
      0.050151954252488216,
      -0.06562410550318344,
      0.05924073475755516,
      -0.19554132960428042,
      0.02005156725128105,
      0.037530747846768756
    ],
    [
      0.359796138510741,
      -0.031569377619811365,
      0.07437461375103899,
      -0.024088683790111462,
      -0.05624551552652793,
      0.011704558638178089,
      0.057614675071718274,
      -0.03881198457404686
    ],
    [
      -0.06767072503991461,
      -0.30382430517690023,
      -0.05614356393957594,
      -0.07428797558966634,
      0.11809957344427181,
      0.1252931517948469,
      0.0928340195603575,
      0.6203052878888046
    ],
    [
      0.006534825556985322,
      -0.5442441213596305,
      0.005839722277933627,
      0.12967395985248945,
      0.11834088407337151,
      0.170212936621361,
      -0.008427970033589657,
      0.23274443010753923
    ],
    [
      0.010027500082869716,
      0.4523431833480625,
      -0.04186902549097992,
      0.16798522830986656,
      0.042976190815845694,
      -0.020360021423376805,
      -0.12285753352291583,
      0.008033837669436838
    ],
    [
      -0.027866113836744352,
      0.29760876667557457,
      0.06440025985369703,
      0.309666329099004,
      0.06420490150024923,
      -0.10713584192194274,
      0.0659429632760817,
      -0.0326741233997098
    ],
    [
      0.006151257880807029,
      0.3584966987378229,
      0.0020225229649520923,
      -0.0830753871451389,
      -0.08474848103391258,
      -0.15349263461818013,
      0.11982808404897778,
      -0.1356735508261386
    ],
    [
      0.20516968564593224,
      -0.00864799451863385,
      0.09040624255944799,
      0.05169746611252673,
      0.10410158029352753,
      -0.035266958414710975,
      -0.057417007305034316,
      -0.23886407430813159
    ],
    [
      0.12670601297018172,
      0.08587476377951786,
      -0.053648363419846946,
      0.0011704703038413105,
      0.006007511002561685,
      -0.011614661938288808,
      -0.14236640480050056,
      -0.13998643794150323
    ],
    [
      0.24415040274047495,
      0.2093847268969151,
      -0.0487039357434575,
      -0.03489206823804357,
      -0.028113970425052738,
      0.02735414041256795,
      0.008548822919116565,
      0.011267378249489684
    ],
    [
      -0.3106552678171578,
      -0.013686603267434202,
      0.4849528653040717,
      -0.006402695820970393,
      -0.033693578731010684,
      0.01108988375729554,
      0.10629674829690962,
      -0.33885841660570376
    ],
    [
      0.05941199612318115,
      -0.250674357789712,
      0.04826606066728316,
      -0.13766245248653905,
      -0.24482331611870292,
      -0.2818764065013402,
      -0.038782611059024835,
      0.950135076269915
    ],
    [
      -0.0033422710308693314,
      0.498241041316699,
      -0.01927092298077284,
      -0.13618642569239472,
      -0.13205482905418273,
      -0.11204325367459951,
      -0.11148647964875659,
      -0.289183126892643
    ],
    [
      0.09532110555445633,
      -0.5112291903984331,
      -0.07425491080057264,
      0.16504903216886774,
      -0.02315957479222888,
      -0.16376188988979695,
      -0.16139834304695205,
      -0.17470676540949404
    ],
    [
      0.011268455162900731,
      0.06643020562236183,
      0.0990009000344957,
      0.09025135548893261,
      0.07329510024521894,
      0.11334427586237478,
      0.3762489823374247,
      0.6029449588398137
    ],
    [
      -0.19717555307188847,
      0.13477413480159192,
      0.047801158648077574,
      -0.1284716207902577,
      -0.025312550816494618,
      0.101458541872112,
      -0.0727374342301357,
      0.04143044135729128
    ],
    [
      0.09978738745795868,
      -0.1881612452543172,
      -0.031796723775438615,
      -0.10941369867072152,
      -0.3188735202229681,
      -0.45261313160545646,
      0.23858096961701936,
      1.504042392411362
    ],
    [
      -0.14924679871294222,
      -0.37283927193486543,
      0.02025062936733987,
      0.25419319550731134,
      -0.052605874857342486,
      0.18453611640218145,
      0.11213537682213971,
      -0.04215895635848793
    ],
    [
      -0.34292948634864756,
      0.00847840076043639,
      -0.1844983547174232,
      -0.037826686254616805,
      -0.12940052715827577,
      0.06281105749134377,
      0.17321671035498476,
      0.22155794134489726
    ],
    [
      2.4847912614227964E-4,
      -0.011863146454596645,
      -0.0029690611623578614,
      -0.15202149209835472,
      -0.13287186840984358,
      0.22094802357911328,
      -0.11767890082257476,
      -0.07438726594046899
    ]
  ],
  "b1": [
    0.08554527608311605,
    0.01086917852441725,
    0.017416667696015773,
    0.01865034378605312,
    0.0043111435549733,
    -0.01829214920678343,
    0.05815860764486031,
    -0.07215223479788677,
    0.07854939768909566,
    0.25242225310258637,
    0.025115359447813724,
    -0.0050644599275851175,
    0.1603642190753058,
    -0.032121693451101954,
    -0.06351075583842034,
    0.0019796610270945026,
    -0.03317891610899487,
    -0.06873863736698722,
    -0.0731431056884864,
    0.05638031657042528,
    0.19003373815307603,
    -0.26696547811563465,
    -0.08544157189304348,
    0.5090257706669666,
    -0.03107009681198128,
    0.08506507091358631,
    -0.02083610544528768,
    0.26222144909086476,
    -0.028143724217384744,
    -0.005985491149077733,
    0.37695721014081307,
    -0.11255695113675497,
    -0.13981733055899906,
    -0.05118327250501274,
    0.058455701493072415,
    -0.04555894615670654,
    -0.04889776250184875,
    0.013672975993574957,
    0.050167895623747086,
    0.5279138320333224,
    0.12634758343493024,
    -0.19785325473910192,
    0.24464198333625212,
    0.042374205642015245,
    0.7427766474320221,
    -0.15437371195505104,
    0.0831441929298073,
    0.06213076020331674
  ],
  "w2": [
    [
      0.009712074089047198,
      -0.11004795372019432,
      0.4621260449527037,
      -0.046515803070010485,
      -0.40624822561552065,
      -0.324324491255196,
      0.5579078673695044,
      -0.34138398780401874,
      0.4404035812132167,
      -0.014250564408006622,
      -0.021032879193023032,
      -0.019649470073997786,
      -0.08252910359070122,
      -0.2952906253494244,
      0.13259075987338223,
      -0.07410636657389036,
      0.5855057190443924,
      0.20187082106959323,
      -0.42309626528663863,
      -0.25848979163252084,
      -0.002861640986842204,
      0.13932910966844567,
      0.002359907378101141,
      -0.010658137232207588,
      -0.39694248802794296,
      0.09604561188804678,
      0.06771312945636045,
      -0.18716389221486798,
      0.02136808747089742,
      0.4438626278992758,
      0.015950764085689434,
      -0.05931486970354663,
      0.061468323682297876,
      0.030414004277037502,
      0.02421004572906072,
      0.5415120148331101,
      0.038698494808340575,
      0.48128123494003,
      -0.008049028802431885,
      -0.07073914001565577,
      0.04724515161427864,
      0.06707178883938253,
      -0.04018564190609465,
      -0.2221747318530257,
      0.048732241362651335,
      -0.009780944350052088,
      -0.3483258380224684,
      0.0068072748934096625
    ],
    [
      0.009249750479480278,
      -0.11214897794556895,
      0.24508499556674668,
      0.021153518935638584,
      0.022403259528097557,
      -0.19585009935574116,
      -0.3396358306273035,
      0.047044102254089545,
      -0.0601078883427852,
      -0.013750014602911257,
      0.04285475015676102,
      -0.024104199522653663,
      0.38799782156941276,
      0.10968809907977252,
      0.20834081717665295,
      0.08639448638771616,
      0.1518027791637061,
      -0.08739441425354365,
      0.29704901999775263,
      -0.14491814994746374,
      0.11206959944952971,
      0.3517167820832796,
      -0.016480562541399874,
      -0.006379366374943296,
      -0.21560114719537338,
      -0.05634022339020545,
      0.009096561577150577,
      -0.4862286487572352,
      0.07313336504839238,
      -0.02693256729803796,
      0.00682283181807727,
      -0.31593766920895583,
      0.19588965979104894,
      0.03370868461562256,
      0.193349557451222,
      0.3054938669154883,
      0.016098966234632153,
      0.33635596861657174,
      -1.9224969378855172E-4,
      -0.03337698885989516,
      0.18716749149860673,
      -0.3904577603842325,
      0.08693174024616675,
      0.09237800117199435,
      0.02907896067115345,
      0.0022902661620093794,
      -0.09875497304013493,
      0.13410199034304265
    ],
    [
      0.4060827181232171,
      0.08039206476304328,
      -0.26716520931535304,
      -0.024467242332895815,
      0.05471362306598685,
      0.10627611975590186,
      0.16094047064118386,
      0.21238046121723891,
      -0.06586871140396704,
      -0.6142768552408815,
      -0.08231441911113484,
      -0.3150321809877527,
      0.2239415250335228,
      0.17800249260140755,
      -0.05736890753722125,
      0.07957443749344985,
      -0.01005042463851597,
      0.23521551289971243,
      0.034945760584139965,
      -0.4738720142299248,
      -0.435865356961955,
      -0.2943338069740696,
      0.43231046589403355,
      -1.1933577587403172,
      -0.1357118953950052,
      -0.1588973411966825,
      -0.08301646724426795,
      -0.3453706213152725,
      -0.050563563015634715,
      0.214118332444831,
      -0.5866204613971452,
      0.5211987491044855,
      -0.3713707911729702,
      -0.3700661405372973,
      0.28356956353579793,
      -0.13907554167151487,
      0.15406960153225174,
      -0.06552512338646704,
      0.5569638688527763,
      -0.9315106121864802,
      0.46785427866591967,
      0.4413971821548872,
      -0.44219379582938534,
      0.08034166307156348,
      -1.4316911798393928,
      0.4643084616946061,
      -0.33421856081487944,
      0.16637811672158076
    ]
  ],
  "b2": [
    0.0385060778413697,
    0.007096024009719558,
    -1.0437034436140917
  ]
}